K -0.079415 0.027020 -0.353350 0.166743 0.071019 0.245345 -0.190050 -0.120908 0.203097 0.337727
L 0.069296 0.074563 -0.019654 0.170243 -0.129197 0.067155 -0.151596 -0.138751 0.003916 0.247497
G -0.049675 -0.012183 -0.013428 -0.036264 0.154052 0.079767 0.035899 -0.040820 -0.045182 0.070096
R -0.122009 0.018428 -0.209089 -0.066255 -0.041793 0.006994 -0.026507 0.203836 0.114219 -0.065672
A 0.154320 0.047964 0.054416 -0.071238 0.033970 0.010173 -0.114315 -0.279210 0.007858 0.268180
C 0.003588 -0.031484 0.199625 -0.052692 0.043638 -0.130583 0.123901 0.174560 -0.243817 -0.202220
I 0.019849 0.041053 -0.003029 0.023040 -0.070708 0.120420 -0.085967 -0.070174 -0.037161 0.035028
S 0.110009 -0.002640 0.203925 0.096582 -0.073723 0.052469 -0.033105 -0.038116 -0.144908 -0.064519
V -0.048487 -0.018696 0.059718 0.002339 -0.006937 -0.057982 0.110674 0.003156 0.076712 0.001438
P -0.010635 0.061454 -0.050124 0.002792 -0.151624 -0.039894 0.113419 0.271739 0.028091 -0.181166
F -0.076495 -0.001275 -0.156819 0.057375 -0.029571 0.161799 -0.144872 0.071102 0.087789 0.001872
T -0.015714 0.055895 0.180788 0.017331 0.005030 -0.200395 0.040284 0.064573 -0.084646 -0.014875
N -0.002750 0.015382 0.152123 0.081983 -0.135488 -0.095260 0.037321 0.020827 -0.089116 -0.115972
E 0.157963 -0.028981 0.108164 0.007419 -0.091227 0.050453 -0.008219 -0.192749 -0.106292 -0.025442
D 0.154072 -0.037034 0.178464 0.089576 -0.076432 -0.095666 -0.032914 -0.067381 -0.095915 -0.033110
Q -0.007948 -0.021250 0.066555 -0.040347 -0.051301 0.024322 -0.112846 -0.097733 -0.158306 -0.144960
W 0.001152 0.152965 -0.408421 0.032951 0.044725 0.059870 -0.136525 0.147826 0.291549 0.242330
Y -0.067924 -0.039343 0.150344 -0.033240 -0.041118 -0.145203 0.167259 0.166455 -0.124700 -0.192758
H 0.237254 -0.066819 0.153507 -0.123957 -0.145065 -0.029561 0.101589 -0.159402 -0.220519 -0.169357
M -0.005126 -0.036492 0.092819 -0.050518 0.085358 -0.065526 -0.070970 -0.037412 0.036764 0.031217
<unk> 0.021066 0.009926 0.019327 0.013693 -0.030320 0.000935 -0.018877 -0.005929 -0.025028 0.001267
